<Network id="4303300" birthGen="9815" fitness="0.324">
  <Nodes>
    <Node type="bias" id="0" />
    <Node type="in" id="1" />
    <Node type="in" id="2" />
    <Node type="in" id="3" />
    <Node type="in" id="4" />
    <Node type="in" id="5" />
    <Node type="in" id="6" />
    <Node type="in" id="7" />
    <Node type="in" id="8" />
    <Node type="in" id="9" />
    <Node type="in" id="10" />
    <Node type="in" id="11" />
    <Node type="in" id="12" />
    <Node type="in" id="13" />
    <Node type="in" id="14" />
    <Node type="in" id="15" />
    <Node type="in" id="16" />
    <Node type="in" id="17" />
    <Node type="in" id="18" />
    <Node type="in" id="19" />
    <Node type="in" id="20" />
    <Node type="in" id="21" />
    <Node type="in" id="22" />
    <Node type="in" id="23" />
    <Node type="in" id="24" />
    <Node type="in" id="25" />
    <Node type="in" id="26" />
    <Node type="in" id="27" />
    <Node type="in" id="28" />
    <Node type="in" id="29" />
    <Node type="in" id="30" />
    <Node type="in" id="31" />
    <Node type="in" id="32" />
    <Node type="in" id="33" />
    <Node type="in" id="34" />
    <Node type="in" id="35" />
    <Node type="in" id="36" />
    <Node type="in" id="37" />
    <Node type="in" id="38" />
    <Node type="in" id="39" />
    <Node type="in" id="40" />
    <Node type="in" id="41" />
    <Node type="in" id="42" />
    <Node type="in" id="43" />
    <Node type="in" id="44" />
    <Node type="in" id="45" />
    <Node type="in" id="46" />
    <Node type="in" id="47" />
    <Node type="in" id="48" />
    <Node type="in" id="49" />
    <Node type="in" id="50" />
    <Node type="in" id="51" />
    <Node type="in" id="52" />
    <Node type="in" id="53" />
    <Node type="in" id="54" />
    <Node type="in" id="55" />
    <Node type="in" id="56" />
    <Node type="in" id="57" />
    <Node type="in" id="58" />
    <Node type="in" id="59" />
    <Node type="in" id="60" />
    <Node type="in" id="61" />
    <Node type="in" id="62" />
    <Node type="in" id="63" />
    <Node type="in" id="64" />
    <Node type="in" id="65" />
    <Node type="in" id="66" />
    <Node type="in" id="67" />
    <Node type="in" id="68" />
    <Node type="in" id="69" />
    <Node type="in" id="70" />
    <Node type="in" id="71" />
    <Node type="in" id="72" />
    <Node type="in" id="73" />
    <Node type="in" id="74" />
    <Node type="in" id="75" />
    <Node type="in" id="76" />
    <Node type="in" id="77" />
    <Node type="in" id="78" />
    <Node type="in" id="79" />
    <Node type="in" id="80" />
    <Node type="in" id="81" />
    <Node type="in" id="82" />
    <Node type="in" id="83" />
    <Node type="in" id="84" />
    <Node type="in" id="85" />
    <Node type="in" id="86" />
    <Node type="in" id="87" />
    <Node type="in" id="88" />
    <Node type="in" id="89" />
    <Node type="in" id="90" />
    <Node type="in" id="91" />
    <Node type="in" id="92" />
    <Node type="in" id="93" />
    <Node type="in" id="94" />
    <Node type="in" id="95" />
    <Node type="in" id="96" />
    <Node type="in" id="97" />
    <Node type="in" id="98" />
    <Node type="in" id="99" />
    <Node type="in" id="100" />
    <Node type="in" id="101" />
    <Node type="in" id="102" />
    <Node type="in" id="103" />
    <Node type="in" id="104" />
    <Node type="in" id="105" />
    <Node type="in" id="106" />
    <Node type="in" id="107" />
    <Node type="in" id="108" />
    <Node type="in" id="109" />
    <Node type="in" id="110" />
    <Node type="in" id="111" />
    <Node type="in" id="112" />
    <Node type="in" id="113" />
    <Node type="in" id="114" />
    <Node type="in" id="115" />
    <Node type="in" id="116" />
    <Node type="in" id="117" />
    <Node type="in" id="118" />
    <Node type="in" id="119" />
    <Node type="in" id="120" />
    <Node type="in" id="121" />
    <Node type="in" id="122" />
    <Node type="in" id="123" />
    <Node type="in" id="124" />
    <Node type="in" id="125" />
    <Node type="in" id="126" />
    <Node type="in" id="127" />
    <Node type="in" id="128" />
    <Node type="in" id="129" />
    <Node type="in" id="130" />
    <Node type="out" id="131" />
    <Node type="out" id="132" />
    <Node type="out" id="133" />
    <Node type="out" id="134" />
    <Node type="out" id="135" />
    <Node type="out" id="136" />
    <Node type="out" id="137" />
    <Node type="out" id="138" />
    <Node type="out" id="139" />
    <Node type="out" id="140" />
    <Node type="out" id="141" />
    <Node type="out" id="142" />
    <Node type="out" id="143" />
    <Node type="out" id="144" />
    <Node type="out" id="145" />
    <Node type="out" id="146" />
    <Node type="out" id="147" />
    <Node type="out" id="148" />
    <Node type="out" id="149" />
    <Node type="out" id="150" />
    <Node type="out" id="151" />
    <Node type="out" id="152" />
    <Node type="out" id="153" />
    <Node type="out" id="154" />
    <Node type="out" id="155" />
    <Node type="hid" id="4119" />
    <Node type="hid" id="5310" />
    <Node type="hid" id="7211" />
    <Node type="hid" id="7798" />
    <Node type="hid" id="7948" />
    <Node type="hid" id="9285" />
    <Node type="hid" id="9712" />
    <Node type="hid" id="10936" />
    <Node type="hid" id="11578" />
    <Node type="hid" id="12183" />
    <Node type="hid" id="12929" />
    <Node type="hid" id="15086" />
    <Node type="hid" id="15108" />
    <Node type="hid" id="17541" />
  </Nodes>
  <Connections>
    <Con id="950" src="31" tgt="150" wght="2.2351167327724397" />
    <Con id="1082" src="37" tgt="132" wght="1.3060625808981823" />
    <Con id="1260" src="44" tgt="135" wght="5" />
    <Con id="2113" src="78" tgt="138" wght="-4.415524684432734" />
    <Con id="2180" src="80" tgt="155" wght="4.788375049809372" />
    <Con id="2491" src="93" tgt="141" wght="4.489503333342812" />
    <Con id="2759" src="104" tgt="134" wght="-4.9988173408140737" />
    <Con id="3195" src="121" tgt="145" wght="3.782685363950149" />
    <Con id="3201" src="121" tgt="151" wght="1.8039789330214262" />
    <Con id="4121" src="4119" tgt="134" wght="3.2491563659189588" />
    <Con id="4161" src="92" tgt="145" wght="-4.4217322957210614" />
    <Con id="4184" src="39" tgt="139" wght="3.4116854074258831" />
    <Con id="4345" src="132" tgt="137" wght="2.0804153993052403" />
    <Con id="5510" src="26" tgt="133" wght="-3.2876277689611277" />
    <Con id="5577" src="74" tgt="144" wght="1.8043765423951039" />
    <Con id="6685" src="84" tgt="154" wght="-1.1332948296830727" />
    <Con id="7376" src="127" tgt="150" wght="2.4367944476634809" />
    <Con id="7800" src="7798" tgt="138" wght="3.9944601377693689" />
    <Con id="7950" src="7948" tgt="152" wght="-4.4791736227266226" />
    <Con id="8154" src="7948" tgt="143" wght="-3.5288397129816569" />
    <Con id="8659" src="41" tgt="4119" wght="-0.96670820316751582" />
    <Con id="10120" src="4119" tgt="152" wght="-0.11623383430717743" />
    <Con id="10938" src="10936" tgt="9712" wght="-1.5144598688533566" />
    <Con id="11421" src="79" tgt="9712" wght="2.1593861375004053" />
    <Con id="11427" src="52" tgt="143" wght="5" />
    <Con id="11580" src="11578" tgt="148" wght="0.28056571843052852" />
    <Con id="11739" src="67" tgt="9285" wght="-1.0974543774076317" />
    <Con id="12185" src="12183" tgt="5310" wght="-4.0819058232382206" />
    <Con id="12193" src="51" tgt="145" wght="-3.3413577137396171" />
    <Con id="12378" src="98" tgt="7948" wght="-3.6943088643552033" />
    <Con id="13528" src="107" tgt="12929" wght="-2.5671251541924938" />
    <Con id="14189" src="31" tgt="11578" wght="-4.3522526236071206" />
    <Con id="15088" src="15086" tgt="146" wght="4.21970186994659" />
    <Con id="16790" src="54" tgt="11578" wght="-2.2384678318979834" />
    <Con id="17081" src="90" tgt="5310" wght="-2.6985045276054072" />
    <Con id="17542" src="7211" tgt="17541" wght="1.6728954692809326" />
    <Con id="17543" src="17541" tgt="134" wght="5" />
    <Con id="17744" src="153" tgt="15108" wght="-3.528757028282941" />
  </Connections>
</Network>