<Network id="3665114" birthGen="8374" fitness="0.35200000000000004">
  <Nodes>
    <Node type="bias" id="0" />
    <Node type="in" id="1" />
    <Node type="in" id="2" />
    <Node type="in" id="3" />
    <Node type="in" id="4" />
    <Node type="in" id="5" />
    <Node type="in" id="6" />
    <Node type="in" id="7" />
    <Node type="in" id="8" />
    <Node type="in" id="9" />
    <Node type="in" id="10" />
    <Node type="in" id="11" />
    <Node type="in" id="12" />
    <Node type="in" id="13" />
    <Node type="in" id="14" />
    <Node type="in" id="15" />
    <Node type="in" id="16" />
    <Node type="in" id="17" />
    <Node type="in" id="18" />
    <Node type="in" id="19" />
    <Node type="in" id="20" />
    <Node type="in" id="21" />
    <Node type="in" id="22" />
    <Node type="in" id="23" />
    <Node type="in" id="24" />
    <Node type="in" id="25" />
    <Node type="in" id="26" />
    <Node type="in" id="27" />
    <Node type="in" id="28" />
    <Node type="in" id="29" />
    <Node type="in" id="30" />
    <Node type="in" id="31" />
    <Node type="in" id="32" />
    <Node type="in" id="33" />
    <Node type="in" id="34" />
    <Node type="in" id="35" />
    <Node type="in" id="36" />
    <Node type="in" id="37" />
    <Node type="in" id="38" />
    <Node type="in" id="39" />
    <Node type="in" id="40" />
    <Node type="in" id="41" />
    <Node type="in" id="42" />
    <Node type="in" id="43" />
    <Node type="in" id="44" />
    <Node type="in" id="45" />
    <Node type="in" id="46" />
    <Node type="in" id="47" />
    <Node type="in" id="48" />
    <Node type="in" id="49" />
    <Node type="in" id="50" />
    <Node type="in" id="51" />
    <Node type="in" id="52" />
    <Node type="in" id="53" />
    <Node type="in" id="54" />
    <Node type="in" id="55" />
    <Node type="in" id="56" />
    <Node type="in" id="57" />
    <Node type="in" id="58" />
    <Node type="in" id="59" />
    <Node type="in" id="60" />
    <Node type="in" id="61" />
    <Node type="in" id="62" />
    <Node type="in" id="63" />
    <Node type="in" id="64" />
    <Node type="in" id="65" />
    <Node type="in" id="66" />
    <Node type="in" id="67" />
    <Node type="in" id="68" />
    <Node type="in" id="69" />
    <Node type="in" id="70" />
    <Node type="in" id="71" />
    <Node type="in" id="72" />
    <Node type="in" id="73" />
    <Node type="in" id="74" />
    <Node type="in" id="75" />
    <Node type="in" id="76" />
    <Node type="in" id="77" />
    <Node type="in" id="78" />
    <Node type="in" id="79" />
    <Node type="in" id="80" />
    <Node type="in" id="81" />
    <Node type="in" id="82" />
    <Node type="in" id="83" />
    <Node type="in" id="84" />
    <Node type="in" id="85" />
    <Node type="in" id="86" />
    <Node type="in" id="87" />
    <Node type="in" id="88" />
    <Node type="in" id="89" />
    <Node type="in" id="90" />
    <Node type="in" id="91" />
    <Node type="in" id="92" />
    <Node type="in" id="93" />
    <Node type="in" id="94" />
    <Node type="in" id="95" />
    <Node type="in" id="96" />
    <Node type="in" id="97" />
    <Node type="in" id="98" />
    <Node type="in" id="99" />
    <Node type="in" id="100" />
    <Node type="in" id="101" />
    <Node type="in" id="102" />
    <Node type="in" id="103" />
    <Node type="in" id="104" />
    <Node type="in" id="105" />
    <Node type="in" id="106" />
    <Node type="in" id="107" />
    <Node type="in" id="108" />
    <Node type="in" id="109" />
    <Node type="in" id="110" />
    <Node type="in" id="111" />
    <Node type="in" id="112" />
    <Node type="in" id="113" />
    <Node type="in" id="114" />
    <Node type="in" id="115" />
    <Node type="in" id="116" />
    <Node type="in" id="117" />
    <Node type="in" id="118" />
    <Node type="in" id="119" />
    <Node type="in" id="120" />
    <Node type="in" id="121" />
    <Node type="in" id="122" />
    <Node type="in" id="123" />
    <Node type="in" id="124" />
    <Node type="in" id="125" />
    <Node type="in" id="126" />
    <Node type="in" id="127" />
    <Node type="in" id="128" />
    <Node type="in" id="129" />
    <Node type="in" id="130" />
    <Node type="out" id="131" />
    <Node type="out" id="132" />
    <Node type="out" id="133" />
    <Node type="out" id="134" />
    <Node type="out" id="135" />
    <Node type="out" id="136" />
    <Node type="out" id="137" />
    <Node type="out" id="138" />
    <Node type="out" id="139" />
    <Node type="out" id="140" />
    <Node type="out" id="141" />
    <Node type="out" id="142" />
    <Node type="out" id="143" />
    <Node type="out" id="144" />
    <Node type="out" id="145" />
    <Node type="out" id="146" />
    <Node type="out" id="147" />
    <Node type="out" id="148" />
    <Node type="out" id="149" />
    <Node type="out" id="150" />
    <Node type="out" id="151" />
    <Node type="out" id="152" />
    <Node type="out" id="153" />
    <Node type="out" id="154" />
    <Node type="out" id="155" />
    <Node type="hid" id="3955" />
    <Node type="hid" id="7186" />
  </Nodes>
  <Connections>
    <Con id="360" src="8" tgt="135" wght="-1.8230325479958405" />
    <Con id="504" src="13" tgt="154" wght="0.941798869389749" />
    <Con id="885" src="29" tgt="135" wght="-3.6993057854800813" />
    <Con id="894" src="29" tgt="144" wght="-3.5028270306424862" />
    <Con id="895" src="29" tgt="145" wght="1.0591075964357128" />
    <Con id="945" src="31" tgt="145" wght="0.33185179256047265" />
    <Con id="1014" src="34" tgt="139" wght="3.2827630799088912" />
    <Con id="1035" src="35" tgt="135" wght="-0.61006578560509461" />
    <Con id="1093" src="37" tgt="143" wght="1.092172812204808" />
    <Con id="1445" src="51" tgt="145" wght="3.0708377467928982" />
    <Con id="1718" src="62" tgt="143" wght="3.2904422224355669" />
    <Con id="1836" src="67" tgt="136" wght="-2.2559540783335725" />
    <Con id="1852" src="67" tgt="152" wght="3.9559782534089294" />
    <Con id="2008" src="74" tgt="133" wght="0.743676732698063" />
    <Con id="2264" src="84" tgt="139" wght="3.4941521957447104" />
    <Con id="2686" src="101" tgt="136" wght="5" />
    <Con id="2712" src="102" tgt="137" wght="4.1298283792064439" />
    <Con id="2801" src="105" tgt="151" wght="4.1840087226592" />
    <Con id="2806" src="106" tgt="131" wght="4.9984903610908278" />
    <Con id="2811" src="106" tgt="136" wght="-4.9984217351787974" />
    <Con id="2884" src="109" tgt="134" wght="3.9740092347357767" />
    <Con id="2911" src="110" tgt="136" wght="1.7243610372227096" />
    <Con id="3269" src="124" tgt="144" wght="-3.8248285739583907" />
    <Con id="3767" src="120" tgt="152" wght="-4.6193131072329416" />
    <Con id="3957" src="3955" tgt="136" wght="4.1249360242248656" />
    <Con id="4429" src="54" tgt="138" wght="-3.0411918785201526" />
    <Con id="5143" src="109" tgt="152" wght="0.73611819983263382" />
    <Con id="6790" src="107" tgt="3955" wght="2.0995243941433728" />
    <Con id="7187" src="107" tgt="7186" wght="4.2305003003991013" />
    <Con id="7188" src="7186" tgt="132" wght="5" />
  </Connections>
</Network>