<Network id="4376875" birthGen="9995" fitness="0.32400000000000007">
  <Nodes>
    <Node type="bias" id="0" />
    <Node type="in" id="1" />
    <Node type="in" id="2" />
    <Node type="in" id="3" />
    <Node type="in" id="4" />
    <Node type="in" id="5" />
    <Node type="in" id="6" />
    <Node type="in" id="7" />
    <Node type="in" id="8" />
    <Node type="in" id="9" />
    <Node type="in" id="10" />
    <Node type="in" id="11" />
    <Node type="in" id="12" />
    <Node type="in" id="13" />
    <Node type="in" id="14" />
    <Node type="in" id="15" />
    <Node type="in" id="16" />
    <Node type="in" id="17" />
    <Node type="in" id="18" />
    <Node type="in" id="19" />
    <Node type="in" id="20" />
    <Node type="in" id="21" />
    <Node type="in" id="22" />
    <Node type="in" id="23" />
    <Node type="in" id="24" />
    <Node type="in" id="25" />
    <Node type="in" id="26" />
    <Node type="in" id="27" />
    <Node type="in" id="28" />
    <Node type="in" id="29" />
    <Node type="in" id="30" />
    <Node type="in" id="31" />
    <Node type="in" id="32" />
    <Node type="in" id="33" />
    <Node type="in" id="34" />
    <Node type="in" id="35" />
    <Node type="in" id="36" />
    <Node type="in" id="37" />
    <Node type="in" id="38" />
    <Node type="in" id="39" />
    <Node type="in" id="40" />
    <Node type="in" id="41" />
    <Node type="in" id="42" />
    <Node type="in" id="43" />
    <Node type="in" id="44" />
    <Node type="in" id="45" />
    <Node type="in" id="46" />
    <Node type="in" id="47" />
    <Node type="in" id="48" />
    <Node type="in" id="49" />
    <Node type="in" id="50" />
    <Node type="in" id="51" />
    <Node type="in" id="52" />
    <Node type="in" id="53" />
    <Node type="in" id="54" />
    <Node type="in" id="55" />
    <Node type="in" id="56" />
    <Node type="in" id="57" />
    <Node type="in" id="58" />
    <Node type="in" id="59" />
    <Node type="in" id="60" />
    <Node type="in" id="61" />
    <Node type="in" id="62" />
    <Node type="in" id="63" />
    <Node type="in" id="64" />
    <Node type="in" id="65" />
    <Node type="in" id="66" />
    <Node type="in" id="67" />
    <Node type="in" id="68" />
    <Node type="in" id="69" />
    <Node type="in" id="70" />
    <Node type="in" id="71" />
    <Node type="in" id="72" />
    <Node type="in" id="73" />
    <Node type="in" id="74" />
    <Node type="in" id="75" />
    <Node type="in" id="76" />
    <Node type="in" id="77" />
    <Node type="in" id="78" />
    <Node type="in" id="79" />
    <Node type="in" id="80" />
    <Node type="in" id="81" />
    <Node type="in" id="82" />
    <Node type="in" id="83" />
    <Node type="in" id="84" />
    <Node type="in" id="85" />
    <Node type="in" id="86" />
    <Node type="in" id="87" />
    <Node type="in" id="88" />
    <Node type="in" id="89" />
    <Node type="in" id="90" />
    <Node type="in" id="91" />
    <Node type="in" id="92" />
    <Node type="in" id="93" />
    <Node type="in" id="94" />
    <Node type="in" id="95" />
    <Node type="in" id="96" />
    <Node type="in" id="97" />
    <Node type="in" id="98" />
    <Node type="in" id="99" />
    <Node type="in" id="100" />
    <Node type="in" id="101" />
    <Node type="in" id="102" />
    <Node type="in" id="103" />
    <Node type="in" id="104" />
    <Node type="in" id="105" />
    <Node type="in" id="106" />
    <Node type="in" id="107" />
    <Node type="in" id="108" />
    <Node type="in" id="109" />
    <Node type="in" id="110" />
    <Node type="in" id="111" />
    <Node type="in" id="112" />
    <Node type="in" id="113" />
    <Node type="in" id="114" />
    <Node type="in" id="115" />
    <Node type="in" id="116" />
    <Node type="in" id="117" />
    <Node type="in" id="118" />
    <Node type="in" id="119" />
    <Node type="in" id="120" />
    <Node type="in" id="121" />
    <Node type="in" id="122" />
    <Node type="in" id="123" />
    <Node type="in" id="124" />
    <Node type="in" id="125" />
    <Node type="in" id="126" />
    <Node type="in" id="127" />
    <Node type="in" id="128" />
    <Node type="in" id="129" />
    <Node type="in" id="130" />
    <Node type="out" id="131" />
    <Node type="out" id="132" />
    <Node type="out" id="133" />
    <Node type="out" id="134" />
    <Node type="out" id="135" />
    <Node type="out" id="136" />
    <Node type="out" id="137" />
    <Node type="out" id="138" />
    <Node type="out" id="139" />
    <Node type="out" id="140" />
    <Node type="out" id="141" />
    <Node type="out" id="142" />
    <Node type="out" id="143" />
    <Node type="out" id="144" />
    <Node type="out" id="145" />
    <Node type="out" id="146" />
    <Node type="out" id="147" />
    <Node type="out" id="148" />
    <Node type="out" id="149" />
    <Node type="out" id="150" />
    <Node type="out" id="151" />
    <Node type="out" id="152" />
    <Node type="out" id="153" />
    <Node type="out" id="154" />
    <Node type="out" id="155" />
    <Node type="hid" id="6513" />
    <Node type="hid" id="8477" />
  </Nodes>
  <Connections>
    <Con id="156" src="0" tgt="131" wght="4.9837181549950342" />
    <Con id="164" src="0" tgt="139" wght="-2.2100614794407263" />
    <Con id="173" src="0" tgt="148" wght="4.9927003427506556" />
    <Con id="199" src="1" tgt="149" wght="-1.9906736809676426" />
    <Con id="207" src="2" tgt="132" wght="4.6449445102401077" />
    <Con id="274" src="4" tgt="149" wght="5" />
    <Con id="300" src="5" tgt="150" wght="3.4830326069190956" />
    <Con id="386" src="9" tgt="136" wght="-1.006038877260726" />
    <Con id="469" src="12" tgt="144" wght="-2.5106695652960402" />
    <Con id="526" src="14" tgt="151" wght="-0.89760769624263048" />
    <Con id="568" src="16" tgt="143" wght="0.22068623127307413" />
    <Con id="628" src="18" tgt="153" wght="3.615949653431032" />
    <Con id="637" src="19" tgt="137" wght="-1.0142369629440391" />
    <Con id="682" src="21" tgt="132" wght="-4.37607419126062" />
    <Con id="835" src="27" tgt="135" wght="-0.47761409006624167" />
    <Con id="854" src="27" tgt="154" wght="0.22729752200786038" />
    <Con id="1044" src="35" tgt="144" wght="-1.9783870146138072" />
    <Con id="1085" src="37" tgt="135" wght="-0.902250787268414" />
    <Con id="1090" src="37" tgt="140" wght="-3.6960887612164672" />
    <Con id="1116" src="38" tgt="141" wght="-2.4503698228780251" />
    <Con id="1185" src="41" tgt="135" wght="4.3476261723284555" />
    <Con id="1291" src="45" tgt="141" wght="1.4579577674157917" />
    <Con id="1299" src="45" tgt="149" wght="0.51845241226418448" />
    <Con id="1338" src="47" tgt="138" wght="-0.72340968118270266" />
    <Con id="1339" src="47" tgt="139" wght="-2.5037076713948987" />
    <Con id="1346" src="47" tgt="146" wght="-1.8806313869047504" />
    <Con id="1358" src="48" tgt="133" wght="0.04597225390597437" />
    <Con id="1434" src="51" tgt="134" wght="-1.0450697854065465" />
    <Con id="1436" src="51" tgt="136" wght="4.221314642656429" />
    <Con id="1539" src="55" tgt="139" wght="-2.7199092670343816" />
    <Con id="1705" src="61" tgt="155" wght="1.964718964882195" />
    <Con id="1815" src="66" tgt="140" wght="1.4993232018806855" />
    <Con id="1831" src="67" tgt="131" wght="-1.9741815564701539" />
    <Con id="1864" src="68" tgt="139" wght="2.5808028246223236" />
    <Con id="1936" src="71" tgt="136" wght="-1.4926018891928436" />
    <Con id="1943" src="71" tgt="143" wght="-0.86856337052569177" />
    <Con id="1962" src="72" tgt="137" wght="0.43959655556745991" />
    <Con id="2002" src="73" tgt="152" wght="4.9072086312541678" />
    <Con id="2141" src="79" tgt="141" wght="1.9386104212376372" />
    <Con id="2233" src="83" tgt="133" wght="-1.1363976486339915" />
    <Con id="2275" src="84" tgt="150" wght="4.1669781201571858" />
    <Con id="2389" src="89" tgt="139" wght="3.6306290301783566" />
    <Con id="2433" src="91" tgt="133" wght="0.60225419537090885" />
    <Con id="2473" src="92" tgt="148" wght="-3.6196551751860939" />
    <Con id="2497" src="93" tgt="147" wght="2.843742288253468" />
    <Con id="2505" src="93" tgt="155" wght="4.0833400805926559" />
    <Con id="2528" src="94" tgt="153" wght="2.0894899941049516" />
    <Con id="2541" src="95" tgt="141" wght="-0.077908515118623956" />
    <Con id="2549" src="95" tgt="149" wght="-3.2363597049314197" />
    <Con id="2601" src="97" tgt="151" wght="0.58187411464631467" />
    <Con id="2681" src="101" tgt="131" wght="-5" />
    <Con id="2747" src="103" tgt="147" wght="1.6069724387489259" />
    <Con id="2851" src="107" tgt="151" wght="0.30724874464794993" />
    <Con id="2952" src="111" tgt="152" wght="0.48343528198757069" />
    <Con id="3275" src="124" tgt="150" wght="0.78572772510512423" />
    <Con id="3288" src="125" tgt="138" wght="2.2252340773954851" />
    <Con id="3346" src="127" tgt="146" wght="0.48736506710877159" />
    <Con id="3383" src="129" tgt="133" wght="0.17862825030076843" />
    <Con id="4095" src="149" tgt="140" wght="-2.1532556577664632" />
    <Con id="5218" src="117" tgt="153" wght="-3.6533672605169274" />
    <Con id="5668" src="103" tgt="131" wght="2.0226066815360442" />
    <Con id="6195" src="16" tgt="155" wght="-2.517802007496357" />
    <Con id="6514" src="117" tgt="6513" wght="-0.508452875363635" />
    <Con id="6515" src="6513" tgt="138" wght="4.52388672856614" />
    <Con id="7090" src="32" tgt="154" wght="-3.8024896944100193" />
    <Con id="7541" src="114" tgt="142" wght="-1.4858542485151265" />
    <Con id="8479" src="8477" tgt="148" wght="5" />
  </Connections>
</Network>