<Network id="4391765" birthGen="9988" fitness="0.324">
  <Nodes>
    <Node type="bias" id="0" />
    <Node type="in" id="1" />
    <Node type="in" id="2" />
    <Node type="in" id="3" />
    <Node type="in" id="4" />
    <Node type="in" id="5" />
    <Node type="in" id="6" />
    <Node type="in" id="7" />
    <Node type="in" id="8" />
    <Node type="in" id="9" />
    <Node type="in" id="10" />
    <Node type="in" id="11" />
    <Node type="in" id="12" />
    <Node type="in" id="13" />
    <Node type="in" id="14" />
    <Node type="in" id="15" />
    <Node type="in" id="16" />
    <Node type="in" id="17" />
    <Node type="in" id="18" />
    <Node type="in" id="19" />
    <Node type="in" id="20" />
    <Node type="in" id="21" />
    <Node type="in" id="22" />
    <Node type="in" id="23" />
    <Node type="in" id="24" />
    <Node type="in" id="25" />
    <Node type="in" id="26" />
    <Node type="in" id="27" />
    <Node type="in" id="28" />
    <Node type="in" id="29" />
    <Node type="in" id="30" />
    <Node type="in" id="31" />
    <Node type="in" id="32" />
    <Node type="in" id="33" />
    <Node type="in" id="34" />
    <Node type="in" id="35" />
    <Node type="in" id="36" />
    <Node type="in" id="37" />
    <Node type="in" id="38" />
    <Node type="in" id="39" />
    <Node type="in" id="40" />
    <Node type="in" id="41" />
    <Node type="in" id="42" />
    <Node type="in" id="43" />
    <Node type="in" id="44" />
    <Node type="in" id="45" />
    <Node type="in" id="46" />
    <Node type="in" id="47" />
    <Node type="in" id="48" />
    <Node type="in" id="49" />
    <Node type="in" id="50" />
    <Node type="in" id="51" />
    <Node type="in" id="52" />
    <Node type="in" id="53" />
    <Node type="in" id="54" />
    <Node type="in" id="55" />
    <Node type="in" id="56" />
    <Node type="in" id="57" />
    <Node type="in" id="58" />
    <Node type="in" id="59" />
    <Node type="in" id="60" />
    <Node type="in" id="61" />
    <Node type="in" id="62" />
    <Node type="in" id="63" />
    <Node type="in" id="64" />
    <Node type="in" id="65" />
    <Node type="in" id="66" />
    <Node type="in" id="67" />
    <Node type="in" id="68" />
    <Node type="in" id="69" />
    <Node type="in" id="70" />
    <Node type="in" id="71" />
    <Node type="in" id="72" />
    <Node type="in" id="73" />
    <Node type="in" id="74" />
    <Node type="in" id="75" />
    <Node type="in" id="76" />
    <Node type="in" id="77" />
    <Node type="in" id="78" />
    <Node type="in" id="79" />
    <Node type="in" id="80" />
    <Node type="in" id="81" />
    <Node type="in" id="82" />
    <Node type="in" id="83" />
    <Node type="in" id="84" />
    <Node type="in" id="85" />
    <Node type="in" id="86" />
    <Node type="in" id="87" />
    <Node type="in" id="88" />
    <Node type="in" id="89" />
    <Node type="in" id="90" />
    <Node type="in" id="91" />
    <Node type="in" id="92" />
    <Node type="in" id="93" />
    <Node type="in" id="94" />
    <Node type="in" id="95" />
    <Node type="in" id="96" />
    <Node type="in" id="97" />
    <Node type="in" id="98" />
    <Node type="in" id="99" />
    <Node type="in" id="100" />
    <Node type="in" id="101" />
    <Node type="in" id="102" />
    <Node type="in" id="103" />
    <Node type="in" id="104" />
    <Node type="in" id="105" />
    <Node type="in" id="106" />
    <Node type="in" id="107" />
    <Node type="in" id="108" />
    <Node type="in" id="109" />
    <Node type="in" id="110" />
    <Node type="in" id="111" />
    <Node type="in" id="112" />
    <Node type="in" id="113" />
    <Node type="in" id="114" />
    <Node type="in" id="115" />
    <Node type="in" id="116" />
    <Node type="in" id="117" />
    <Node type="in" id="118" />
    <Node type="in" id="119" />
    <Node type="in" id="120" />
    <Node type="in" id="121" />
    <Node type="in" id="122" />
    <Node type="in" id="123" />
    <Node type="in" id="124" />
    <Node type="in" id="125" />
    <Node type="in" id="126" />
    <Node type="in" id="127" />
    <Node type="in" id="128" />
    <Node type="in" id="129" />
    <Node type="in" id="130" />
    <Node type="out" id="131" />
    <Node type="out" id="132" />
    <Node type="out" id="133" />
    <Node type="out" id="134" />
    <Node type="out" id="135" />
    <Node type="out" id="136" />
    <Node type="out" id="137" />
    <Node type="out" id="138" />
    <Node type="out" id="139" />
    <Node type="out" id="140" />
    <Node type="out" id="141" />
    <Node type="out" id="142" />
    <Node type="out" id="143" />
    <Node type="out" id="144" />
    <Node type="out" id="145" />
    <Node type="out" id="146" />
    <Node type="out" id="147" />
    <Node type="out" id="148" />
    <Node type="out" id="149" />
    <Node type="out" id="150" />
    <Node type="out" id="151" />
    <Node type="out" id="152" />
    <Node type="out" id="153" />
    <Node type="out" id="154" />
    <Node type="out" id="155" />
    <Node type="hid" id="5549" />
    <Node type="hid" id="9625" />
    <Node type="hid" id="11119" />
    <Node type="hid" id="11529" />
    <Node type="hid" id="12896" />
    <Node type="hid" id="12957" />
    <Node type="hid" id="12980" />
    <Node type="hid" id="13216" />
    <Node type="hid" id="14197" />
    <Node type="hid" id="14266" />
    <Node type="hid" id="14416" />
  </Nodes>
  <Connections>
    <Con id="402" src="9" tgt="152" wght="0.10817086879822704" />
    <Con id="808" src="26" tgt="133" wght="1.2679389135999082" />
    <Con id="826" src="26" tgt="151" wght="0.058750472049224567" />
    <Con id="922" src="30" tgt="147" wght="3.1844122070953809" />
    <Con id="1039" src="35" tgt="139" wght="-0.89279441628605127" />
    <Con id="1108" src="38" tgt="133" wght="-0.91840908677214061" />
    <Con id="1158" src="40" tgt="133" wght="-1.803040285628968" />
    <Con id="1305" src="45" tgt="155" wght="-3.7206261361714414" />
    <Con id="1539" src="55" tgt="139" wght="-2.956145087514241" />
    <Con id="1543" src="55" tgt="143" wght="0.99332059193343669" />
    <Con id="1665" src="60" tgt="140" wght="4.2879309962297505" />
    <Con id="1868" src="68" tgt="143" wght="0.990496067201477" />
    <Con id="1967" src="72" tgt="142" wght="-0.52960808250198155" />
    <Con id="2077" src="76" tgt="152" wght="1.3170037921193949" />
    <Con id="2579" src="96" tgt="154" wght="3.2308997853483117" />
    <Con id="2689" src="101" tgt="139" wght="4.466226607679415" />
    <Con id="2736" src="103" tgt="136" wght="3.4911918840198028" />
    <Con id="2750" src="103" tgt="150" wght="0.25139652916750715" />
    <Con id="2760" src="104" tgt="135" wght="5" />
    <Con id="2781" src="105" tgt="131" wght="-4.2750315620012609" />
    <Con id="2784" src="105" tgt="134" wght="5" />
    <Con id="2835" src="107" tgt="135" wght="-2.3453613026553097" />
    <Con id="3231" src="123" tgt="131" wght="-4.9747288581190912" />
    <Con id="3309" src="126" tgt="134" wght="-4.9170818564404577" />
    <Con id="3312" src="126" tgt="137" wght="-1.4777725261829413" />
    <Con id="3652" src="42" tgt="154" wght="2.293869879833955" />
    <Con id="3653" src="105" tgt="146" wght="4.1279877791689428" />
    <Con id="4001" src="55" tgt="142" wght="-5" />
    <Con id="4413" src="4" tgt="141" wght="2.9206147164807605" />
    <Con id="4663" src="31" tgt="143" wght="3.2043369971618061" />
    <Con id="4732" src="70" tgt="153" wght="5" />
    <Con id="4926" src="99" tgt="151" wght="2.3011939786374569" />
    <Con id="4941" src="30" tgt="141" wght="0.29277936322614551" />
    <Con id="5293" src="110" tgt="136" wght="5" />
    <Con id="5308" src="117" tgt="141" wght="0.52867477999995727" />
    <Con id="5551" src="5549" tgt="153" wght="-0.25085589952185289" />
    <Con id="5569" src="3" tgt="154" wght="-3.8974565025961141" />
    <Con id="5628" src="74" tgt="149" wght="-4.3018041248151881" />
    <Con id="5703" src="98" tgt="146" wght="-4.5804743355116315" />
    <Con id="5738" src="122" tgt="131" wght="-2.8462334998918077" />
    <Con id="5794" src="95" tgt="155" wght="4.1589118337532325" />
    <Con id="5909" src="123" tgt="148" wght="-1.4433318336417285" />
    <Con id="5985" src="114" tgt="132" wght="-0.078661431974256041" />
    <Con id="5991" src="93" tgt="154" wght="-1.4008311683447838" />
    <Con id="6279" src="89" tgt="145" wght="-1.1741118509753625" />
    <Con id="6309" src="7" tgt="139" wght="-1.6396810759400915" />
    <Con id="6616" src="60" tgt="155" wght="-3.9323193554333229" />
    <Con id="6728" src="71" tgt="143" wght="4.7110478533227953" />
    <Con id="6748" src="116" tgt="138" wght="-0.70483801112924338" />
    <Con id="7060" src="35" tgt="155" wght="5" />
    <Con id="7138" src="47" tgt="146" wght="1.5449678446933834" />
    <Con id="7360" src="67" tgt="148" wght="0.21907922111829559" />
    <Con id="7677" src="51" tgt="138" wght="-4.9919182410890732" />
    <Con id="7700" src="88" tgt="149" wght="2.391084706782685" />
    <Con id="7910" src="128" tgt="5549" wght="4.6133695393636538" />
    <Con id="8128" src="104" tgt="148" wght="-0.053419686843791947" />
    <Con id="8855" src="21" tgt="142" wght="1.5506239801350654" />
    <Con id="9626" src="8" tgt="9625" wght="-4.6717116276056485" />
    <Con id="10753" src="19" tgt="151" wght="0.27704857487855883" />
    <Con id="11120" src="15" tgt="11119" wght="4.757851173463723" />
    <Con id="11229" src="116" tgt="140" wght="-4.7309418803782854" />
    <Con id="11530" src="88" tgt="11529" wght="0.20183721919969821" />
    <Con id="12885" src="11119" tgt="144" wght="0.48270826782703291" />
    <Con id="12897" src="72" tgt="12896" wght="0.58233005038114793" />
    <Con id="12898" src="12896" tgt="142" wght="0.59703100348886717" />
    <Con id="12950" src="63" tgt="149" wght="-2.6660321896123675" />
    <Con id="12958" src="104" tgt="12957" wght="-0.96632134760888988" />
    <Con id="12981" src="123" tgt="12980" wght="-2.0093110871204276" />
    <Con id="12982" src="12980" tgt="148" wght="-2.3085829265354119" />
    <Con id="13217" src="12957" tgt="13216" wght="4.1773500619456172" />
    <Con id="13218" src="13216" tgt="143" wght="3.2328976740559487" />
    <Con id="13248" src="13216" tgt="148" wght="4.1416929915629712" />
    <Con id="13381" src="9625" tgt="139" wght="-1.4030551863834262" />
    <Con id="14015" src="15" tgt="12896" wght="-3.27399498740055" />
    <Con id="14198" src="63" tgt="14197" wght="-3.5522569646671367" />
    <Con id="14199" src="14197" tgt="149" wght="4.0984468416640629" />
    <Con id="14267" src="8" tgt="14266" wght="-4.9961846028069266" />
    <Con id="14268" src="14266" tgt="9625" wght="4.2730577918700874" />
    <Con id="14417" src="128" tgt="14416" wght="-2.6405619434081018" />
    <Con id="14418" src="14416" tgt="5549" wght="3.4228191732340369" />
    <Con id="14746" src="11119" tgt="155" wght="-2.9796898649015766" />
  </Connections>
</Network>