<Network id="1684902" birthGen="3754" fitness="0.24600000000000002">
  <Nodes>
    <Node type="bias" id="0" />
    <Node type="in" id="1" />
    <Node type="in" id="2" />
    <Node type="in" id="3" />
    <Node type="in" id="4" />
    <Node type="in" id="5" />
    <Node type="in" id="6" />
    <Node type="in" id="7" />
    <Node type="in" id="8" />
    <Node type="in" id="9" />
    <Node type="in" id="10" />
    <Node type="in" id="11" />
    <Node type="in" id="12" />
    <Node type="in" id="13" />
    <Node type="in" id="14" />
    <Node type="in" id="15" />
    <Node type="in" id="16" />
    <Node type="in" id="17" />
    <Node type="in" id="18" />
    <Node type="in" id="19" />
    <Node type="in" id="20" />
    <Node type="in" id="21" />
    <Node type="in" id="22" />
    <Node type="in" id="23" />
    <Node type="in" id="24" />
    <Node type="in" id="25" />
    <Node type="in" id="26" />
    <Node type="in" id="27" />
    <Node type="in" id="28" />
    <Node type="in" id="29" />
    <Node type="in" id="30" />
    <Node type="in" id="31" />
    <Node type="in" id="32" />
    <Node type="in" id="33" />
    <Node type="in" id="34" />
    <Node type="in" id="35" />
    <Node type="in" id="36" />
    <Node type="in" id="37" />
    <Node type="in" id="38" />
    <Node type="in" id="39" />
    <Node type="in" id="40" />
    <Node type="in" id="41" />
    <Node type="in" id="42" />
    <Node type="in" id="43" />
    <Node type="in" id="44" />
    <Node type="in" id="45" />
    <Node type="in" id="46" />
    <Node type="in" id="47" />
    <Node type="in" id="48" />
    <Node type="in" id="49" />
    <Node type="in" id="50" />
    <Node type="in" id="51" />
    <Node type="in" id="52" />
    <Node type="in" id="53" />
    <Node type="in" id="54" />
    <Node type="in" id="55" />
    <Node type="in" id="56" />
    <Node type="in" id="57" />
    <Node type="in" id="58" />
    <Node type="in" id="59" />
    <Node type="in" id="60" />
    <Node type="in" id="61" />
    <Node type="in" id="62" />
    <Node type="in" id="63" />
    <Node type="in" id="64" />
    <Node type="in" id="65" />
    <Node type="in" id="66" />
    <Node type="in" id="67" />
    <Node type="in" id="68" />
    <Node type="in" id="69" />
    <Node type="in" id="70" />
    <Node type="in" id="71" />
    <Node type="in" id="72" />
    <Node type="in" id="73" />
    <Node type="in" id="74" />
    <Node type="in" id="75" />
    <Node type="in" id="76" />
    <Node type="in" id="77" />
    <Node type="in" id="78" />
    <Node type="in" id="79" />
    <Node type="in" id="80" />
    <Node type="in" id="81" />
    <Node type="in" id="82" />
    <Node type="in" id="83" />
    <Node type="in" id="84" />
    <Node type="in" id="85" />
    <Node type="in" id="86" />
    <Node type="in" id="87" />
    <Node type="in" id="88" />
    <Node type="in" id="89" />
    <Node type="in" id="90" />
    <Node type="in" id="91" />
    <Node type="in" id="92" />
    <Node type="in" id="93" />
    <Node type="in" id="94" />
    <Node type="in" id="95" />
    <Node type="in" id="96" />
    <Node type="in" id="97" />
    <Node type="in" id="98" />
    <Node type="in" id="99" />
    <Node type="in" id="100" />
    <Node type="in" id="101" />
    <Node type="in" id="102" />
    <Node type="in" id="103" />
    <Node type="in" id="104" />
    <Node type="in" id="105" />
    <Node type="in" id="106" />
    <Node type="in" id="107" />
    <Node type="in" id="108" />
    <Node type="in" id="109" />
    <Node type="in" id="110" />
    <Node type="in" id="111" />
    <Node type="in" id="112" />
    <Node type="in" id="113" />
    <Node type="in" id="114" />
    <Node type="in" id="115" />
    <Node type="in" id="116" />
    <Node type="in" id="117" />
    <Node type="in" id="118" />
    <Node type="in" id="119" />
    <Node type="in" id="120" />
    <Node type="in" id="121" />
    <Node type="in" id="122" />
    <Node type="in" id="123" />
    <Node type="in" id="124" />
    <Node type="in" id="125" />
    <Node type="in" id="126" />
    <Node type="in" id="127" />
    <Node type="in" id="128" />
    <Node type="in" id="129" />
    <Node type="in" id="130" />
    <Node type="out" id="131" />
    <Node type="out" id="132" />
    <Node type="out" id="133" />
    <Node type="out" id="134" />
    <Node type="out" id="135" />
    <Node type="out" id="136" />
    <Node type="out" id="137" />
    <Node type="out" id="138" />
    <Node type="out" id="139" />
    <Node type="out" id="140" />
    <Node type="out" id="141" />
    <Node type="out" id="142" />
    <Node type="out" id="143" />
    <Node type="out" id="144" />
    <Node type="out" id="145" />
    <Node type="out" id="146" />
    <Node type="out" id="147" />
    <Node type="out" id="148" />
    <Node type="out" id="149" />
    <Node type="out" id="150" />
    <Node type="out" id="151" />
    <Node type="out" id="152" />
    <Node type="out" id="153" />
    <Node type="out" id="154" />
    <Node type="out" id="155" />
    <Node type="hid" id="3527" />
    <Node type="hid" id="5741" />
    <Node type="hid" id="6347" />
  </Nodes>
  <Connections>
    <Con id="193" src="1" tgt="143" wght="3.8328182594635232" />
    <Con id="248" src="3" tgt="148" wght="3.4797669807448983" />
    <Con id="261" src="4" tgt="136" wght="-4.8100882327969163" />
    <Con id="350" src="7" tgt="150" wght="2.9755560638417258" />
    <Con id="359" src="8" tgt="134" wght="-0.35069745239386269" />
    <Con id="405" src="9" tgt="155" wght="-0.011926351808562391" />
    <Con id="479" src="12" tgt="154" wght="-3.8695345865562558" />
    <Con id="495" src="13" tgt="145" wght="-3.2925437255333203" />
    <Con id="520" src="14" tgt="145" wght="-2.39788040556419" />
    <Con id="530" src="14" tgt="155" wght="-0.83728926434991857" />
    <Con id="646" src="19" tgt="146" wght="-2.5630073916178659" />
    <Con id="701" src="21" tgt="151" wght="-1.7417867400629197" />
    <Con id="719" src="22" tgt="144" wght="-0.72071572343466372" />
    <Con id="737" src="23" tgt="137" wght="-0.50129879534473643" />
    <Con id="753" src="23" tgt="153" wght="3.7528801813233055" />
    <Con id="795" src="25" tgt="145" wght="-3.3328408711966513" />
    <Con id="802" src="25" tgt="152" wght="0.65380603386114766" />
    <Con id="837" src="27" tgt="137" wght="-0.393371256609277" />
    <Con id="857" src="28" tgt="132" wght="-4.4575208415784209" />
    <Con id="877" src="28" tgt="152" wght="4.2618919839466614" />
    <Con id="944" src="31" tgt="144" wght="0.435487881454397" />
    <Con id="946" src="31" tgt="146" wght="-0.93881734714273735" />
    <Con id="953" src="31" tgt="153" wght="-2.167760689045815" />
    <Con id="979" src="32" tgt="154" wght="-3.0659631101322717" />
    <Con id="1092" src="37" tgt="142" wght="-0.08704122232466438" />
    <Con id="1101" src="37" tgt="151" wght="-0.14507005981696841" />
    <Con id="1108" src="38" tgt="133" wght="-3.22590303248593" />
    <Con id="1138" src="39" tgt="138" wght="0.79391866775116648" />
    <Con id="1174" src="40" tgt="149" wght="-1.2436801821131858" />
    <Con id="1209" src="42" tgt="134" wght="1.8150800673652388" />
    <Con id="1233" src="43" tgt="133" wght="0.49322165095538706" />
    <Con id="1293" src="45" tgt="143" wght="-1.9734795498004614" />
    <Con id="1330" src="46" tgt="155" wght="3.5577398254362596" />
    <Con id="1352" src="47" tgt="152" wght="3.0105149707456049" />
    <Con id="1357" src="48" tgt="132" wght="-2.9687091126106679" />
    <Con id="1371" src="48" tgt="146" wght="0.453376801075001" />
    <Con id="1378" src="48" tgt="153" wght="-3.1370415072888136" />
    <Con id="1381" src="49" tgt="131" wght="-3.0922550621004086" />
    <Con id="1436" src="51" tgt="136" wght="-4.2776746908202767" />
    <Con id="1448" src="51" tgt="148" wght="-0.45358416039405414" />
    <Con id="1471" src="52" tgt="146" wght="3.0721252178773284" />
    <Con id="1498" src="53" tgt="148" wght="-5" />
    <Con id="1521" src="54" tgt="146" wght="4.1536015475449162" />
    <Con id="1527" src="54" tgt="152" wght="-2.2950418968750346" />
    <Con id="1570" src="56" tgt="145" wght="3.6136761055321447" />
    <Con id="1581" src="57" tgt="131" wght="-4.407221825867687" />
    <Con id="1618" src="58" tgt="143" wght="1.0406801456105306" />
    <Con id="1649" src="59" tgt="149" wght="-3.3811672540105464" />
    <Con id="1696" src="61" tgt="146" wght="4.9233058352059258" />
    <Con id="1722" src="62" tgt="147" wght="-4.656430180830041" />
    <Con id="1756" src="64" tgt="131" wght="-1.6251404156849461" />
    <Con id="1784" src="65" tgt="134" wght="2.2973806689653928" />
    <Con id="1827" src="66" tgt="152" wght="-2.5806526221381048" />
    <Con id="1879" src="68" tgt="154" wght="2.0951556836501566" />
    <Con id="1896" src="69" tgt="146" wght="5" />
    <Con id="2034" src="75" tgt="134" wght="-1.0081519092640021" />
    <Con id="2089" src="77" tgt="139" wght="0.7495790194724703" />
    <Con id="2126" src="78" tgt="151" wght="-5" />
    <Con id="2129" src="78" tgt="154" wght="2.3313697033387122" />
    <Con id="2173" src="80" tgt="148" wght="-3.1132746794642747" />
    <Con id="2180" src="80" tgt="155" wght="4.6377997558254433" />
    <Con id="2292" src="85" tgt="142" wght="-3.8250606588905445" />
    <Con id="2320" src="86" tgt="145" wght="4.9080808479493321" />
    <Con id="2427" src="90" tgt="152" wght="0.72484907924952591" />
    <Con id="2475" src="92" tgt="150" wght="3.2549820331716468" />
    <Con id="2505" src="93" tgt="155" wght="-2.4759363315871852" />
    <Con id="2540" src="95" tgt="140" wght="-2.2474800448687855" />
    <Con id="2617" src="98" tgt="142" wght="-4.8357871692763084" />
    <Con id="2623" src="98" tgt="148" wght="4.4575519985123595" />
    <Con id="2680" src="100" tgt="155" wght="-5" />
    <Con id="2693" src="101" tgt="143" wght="4.8991590786994159" />
    <Con id="2734" src="103" tgt="134" wght="4.0883846906945109" />
    <Con id="2760" src="104" tgt="135" wght="5" />
    <Con id="2762" src="104" tgt="137" wght="5" />
    <Con id="2819" src="106" tgt="144" wght="4.6148430136963725" />
    <Con id="2830" src="106" tgt="155" wght="1.8644371129796549" />
    <Con id="2848" src="107" tgt="148" wght="0.23343750983298897" />
    <Con id="2891" src="109" tgt="141" wght="-4.9673985330632648" />
    <Con id="2906" src="110" tgt="131" wght="0.39917110467816747" />
    <Con id="2927" src="110" tgt="152" wght="-1.4799799111244623" />
    <Con id="2942" src="111" tgt="142" wght="-4.5514721021476516" />
    <Con id="2996" src="113" tgt="146" wght="-3.6910053637059534" />
    <Con id="3035" src="115" tgt="135" wght="-4.8061154171793063" />
    <Con id="3058" src="116" tgt="133" wght="0.052918584639839727" />
    <Con id="3073" src="116" tgt="148" wght="1.9652419886551797" />
    <Con id="3083" src="117" tgt="133" wght="0.42302605903811596" />
    <Con id="3146" src="119" tgt="146" wght="3.2455883059309265" />
    <Con id="3187" src="121" tgt="137" wght="-3.5544625376752039" />
    <Con id="3260" src="124" tgt="135" wght="1.6491425913129358" />
    <Con id="3282" src="125" tgt="132" wght="-1.5873973059058273" />
    <Con id="3373" src="128" tgt="148" wght="2.5612469097381454" />
    <Con id="3456" src="110" tgt="134" wght="-0.81271368776333286" />
    <Con id="3528" src="61" tgt="3527" wght="1.80632106026011" />
    <Con id="3529" src="3527" tgt="134" wght="4.9969724237636592" />
    <Con id="3569" src="42" tgt="137" wght="2.6833865694483219" />
    <Con id="3598" src="108" tgt="137" wght="-0.0641568168066442" />
    <Con id="3958" src="97" tgt="136" wght="-1.4078434550786307" />
    <Con id="4519" src="55" tgt="149" wght="-1.4660874901741194" />
    <Con id="4977" src="109" tgt="137" wght="0.2330088292598545" />
    <Con id="5062" src="102" tgt="151" wght="1.2093020895977544" />
    <Con id="5086" src="29" tgt="152" wght="-0.18655200906037411" />
    <Con id="5401" src="112" tgt="151" wght="3.7472953842299019" />
    <Con id="5742" src="108" tgt="5741" wght="-4.6809202551882478" />
    <Con id="5743" src="5741" tgt="146" wght="-3.0008486211743435" />
    <Con id="6186" src="79" tgt="151" wght="-1.8516208501448621" />
    <Con id="6348" src="3" tgt="6347" wght="0.53123643746839722" />
    <Con id="6349" src="6347" tgt="155" wght="5" />
    <Con id="7280" src="84" tgt="143" wght="0.80765859689563513" />
    <Con id="8082" src="54" tgt="150" wght="3.0378249721829587" />
    <Con id="9617" src="6" tgt="135" wght="-3.3465793775394559" />
  </Connections>
</Network>