<Network id="3491047" birthGen="7871" fitness="0.30800000000000005">
  <Nodes>
    <Node type="bias" id="0" />
    <Node type="in" id="1" />
    <Node type="in" id="2" />
    <Node type="in" id="3" />
    <Node type="in" id="4" />
    <Node type="in" id="5" />
    <Node type="in" id="6" />
    <Node type="in" id="7" />
    <Node type="in" id="8" />
    <Node type="in" id="9" />
    <Node type="in" id="10" />
    <Node type="in" id="11" />
    <Node type="in" id="12" />
    <Node type="in" id="13" />
    <Node type="in" id="14" />
    <Node type="in" id="15" />
    <Node type="in" id="16" />
    <Node type="in" id="17" />
    <Node type="in" id="18" />
    <Node type="in" id="19" />
    <Node type="in" id="20" />
    <Node type="in" id="21" />
    <Node type="in" id="22" />
    <Node type="in" id="23" />
    <Node type="in" id="24" />
    <Node type="in" id="25" />
    <Node type="in" id="26" />
    <Node type="in" id="27" />
    <Node type="in" id="28" />
    <Node type="in" id="29" />
    <Node type="in" id="30" />
    <Node type="in" id="31" />
    <Node type="in" id="32" />
    <Node type="in" id="33" />
    <Node type="in" id="34" />
    <Node type="in" id="35" />
    <Node type="in" id="36" />
    <Node type="in" id="37" />
    <Node type="in" id="38" />
    <Node type="in" id="39" />
    <Node type="in" id="40" />
    <Node type="in" id="41" />
    <Node type="in" id="42" />
    <Node type="in" id="43" />
    <Node type="in" id="44" />
    <Node type="in" id="45" />
    <Node type="in" id="46" />
    <Node type="in" id="47" />
    <Node type="in" id="48" />
    <Node type="in" id="49" />
    <Node type="in" id="50" />
    <Node type="in" id="51" />
    <Node type="in" id="52" />
    <Node type="in" id="53" />
    <Node type="in" id="54" />
    <Node type="in" id="55" />
    <Node type="in" id="56" />
    <Node type="in" id="57" />
    <Node type="in" id="58" />
    <Node type="in" id="59" />
    <Node type="in" id="60" />
    <Node type="in" id="61" />
    <Node type="in" id="62" />
    <Node type="in" id="63" />
    <Node type="in" id="64" />
    <Node type="in" id="65" />
    <Node type="in" id="66" />
    <Node type="in" id="67" />
    <Node type="in" id="68" />
    <Node type="in" id="69" />
    <Node type="in" id="70" />
    <Node type="in" id="71" />
    <Node type="in" id="72" />
    <Node type="in" id="73" />
    <Node type="in" id="74" />
    <Node type="in" id="75" />
    <Node type="in" id="76" />
    <Node type="in" id="77" />
    <Node type="in" id="78" />
    <Node type="in" id="79" />
    <Node type="in" id="80" />
    <Node type="in" id="81" />
    <Node type="in" id="82" />
    <Node type="in" id="83" />
    <Node type="in" id="84" />
    <Node type="in" id="85" />
    <Node type="in" id="86" />
    <Node type="in" id="87" />
    <Node type="in" id="88" />
    <Node type="in" id="89" />
    <Node type="in" id="90" />
    <Node type="in" id="91" />
    <Node type="in" id="92" />
    <Node type="in" id="93" />
    <Node type="in" id="94" />
    <Node type="in" id="95" />
    <Node type="in" id="96" />
    <Node type="in" id="97" />
    <Node type="in" id="98" />
    <Node type="in" id="99" />
    <Node type="in" id="100" />
    <Node type="in" id="101" />
    <Node type="in" id="102" />
    <Node type="in" id="103" />
    <Node type="in" id="104" />
    <Node type="in" id="105" />
    <Node type="in" id="106" />
    <Node type="in" id="107" />
    <Node type="in" id="108" />
    <Node type="in" id="109" />
    <Node type="in" id="110" />
    <Node type="in" id="111" />
    <Node type="in" id="112" />
    <Node type="in" id="113" />
    <Node type="in" id="114" />
    <Node type="in" id="115" />
    <Node type="in" id="116" />
    <Node type="in" id="117" />
    <Node type="in" id="118" />
    <Node type="in" id="119" />
    <Node type="in" id="120" />
    <Node type="in" id="121" />
    <Node type="in" id="122" />
    <Node type="in" id="123" />
    <Node type="in" id="124" />
    <Node type="in" id="125" />
    <Node type="in" id="126" />
    <Node type="in" id="127" />
    <Node type="in" id="128" />
    <Node type="in" id="129" />
    <Node type="in" id="130" />
    <Node type="out" id="131" />
    <Node type="out" id="132" />
    <Node type="out" id="133" />
    <Node type="out" id="134" />
    <Node type="out" id="135" />
    <Node type="out" id="136" />
    <Node type="out" id="137" />
    <Node type="out" id="138" />
    <Node type="out" id="139" />
    <Node type="out" id="140" />
    <Node type="out" id="141" />
    <Node type="out" id="142" />
    <Node type="out" id="143" />
    <Node type="out" id="144" />
    <Node type="out" id="145" />
    <Node type="out" id="146" />
    <Node type="out" id="147" />
    <Node type="out" id="148" />
    <Node type="out" id="149" />
    <Node type="out" id="150" />
    <Node type="out" id="151" />
    <Node type="out" id="152" />
    <Node type="out" id="153" />
    <Node type="out" id="154" />
    <Node type="out" id="155" />
    <Node type="hid" id="3499" />
    <Node type="hid" id="3596" />
    <Node type="hid" id="5270" />
    <Node type="hid" id="6685" />
    <Node type="hid" id="6722" />
    <Node type="hid" id="16113" />
    <Node type="hid" id="16135" />
  </Nodes>
  <Connections>
    <Con id="201" src="1" tgt="151" wght="0.90172327456282875" />
    <Con id="239" src="3" tgt="139" wght="0.044206751012726239" />
    <Con id="831" src="27" tgt="131" wght="0.12350719516644555" />
    <Con id="876" src="28" tgt="151" wght="-3.5535752827071336" />
    <Con id="1285" src="45" tgt="135" wght="3.1175241013988852" />
    <Con id="1320" src="46" tgt="145" wght="-3.211376514586155" />
    <Con id="1624" src="58" tgt="149" wght="1.5139054134488106" />
    <Con id="1691" src="61" tgt="141" wght="-3.5720059216029094" />
    <Con id="2078" src="76" tgt="153" wght="-4.3719885754399" />
    <Con id="2093" src="77" tgt="143" wght="-3.4511119137156947" />
    <Con id="2298" src="85" tgt="148" wght="-3.7692838232409529" />
    <Con id="2596" src="97" tgt="146" wght="-2.9631596707624865" />
    <Con id="2708" src="102" tgt="133" wght="-5" />
    <Con id="2710" src="102" tgt="135" wght="3.138126296841028" />
    <Con id="2796" src="105" tgt="146" wght="0.18333625081819582" />
    <Con id="2799" src="105" tgt="149" wght="-1.4483900786002582" />
    <Con id="2885" src="109" tgt="135" wght="5" />
    <Con id="2958" src="112" tgt="133" wght="-2.7280241385292823" />
    <Con id="3367" src="128" tgt="142" wght="3.6806781253748011" />
    <Con id="3500" src="109" tgt="3499" wght="4.0912830969318748" />
    <Con id="3501" src="3499" tgt="132" wght="4.9791412468679912" />
    <Con id="3594" src="82" tgt="145" wght="-0.5510441022741186" />
    <Con id="3598" src="3596" tgt="155" wght="1.2697945791296661" />
    <Con id="3783" src="96" tgt="153" wght="-5" />
    <Con id="3906" src="42" tgt="139" wght="-5" />
    <Con id="4040" src="68" tgt="147" wght="-0.56112202555073809" />
    <Con id="4386" src="47" tgt="133" wght="-3.11257162778437" />
    <Con id="4608" src="34" tgt="3499" wght="2.2550905106290986" />
    <Con id="5271" src="10" tgt="5270" wght="-1.269216884393245" />
    <Con id="5687" src="85" tgt="131" wght="1.9483097037300468" />
    <Con id="5804" src="82" tgt="135" wght="-3.3226559051579811" />
    <Con id="5880" src="83" tgt="147" wght="-1.0602625074125578" />
    <Con id="6686" src="10" tgt="6685" wght="0.76582757514070554" />
    <Con id="6687" src="6685" tgt="139" wght="5" />
    <Con id="6723" src="72" tgt="6722" wght="-0.11925169712636284" />
    <Con id="16115" src="16113" tgt="135" wght="3.7057621998029497" />
    <Con id="16136" src="120" tgt="16135" wght="-2.9230059667054853" />
  </Connections>
</Network>